<?xml version="1.0"?>
<!-- DTD for the XMLBIF 0.3 format -->
<!DOCTYPE BIF [
	<!ELEMENT BIF ( NETWORK )*>
	      <!ATTLIST BIF VERSION CDATA #REQUIRED>
	<!ELEMENT NETWORK ( NAME, ( PROPERTY | VARIABLE | DEFINITION )* )>
	<!ELEMENT NAME (#PCDATA)>
	<!ELEMENT VARIABLE ( NAME, ( OUTCOME |  PROPERTY )* ) >
	      <!ATTLIST VARIABLE TYPE (nature|decision|utility) "nature">
	<!ELEMENT OUTCOME (#PCDATA)>
	<!ELEMENT DEFINITION ( FOR | GIVEN | TABLE | PROPERTY )* >
	<!ELEMENT FOR (#PCDATA)>
	<!ELEMENT GIVEN (#PCDATA)>
	<!ELEMENT TABLE (#PCDATA)>
	<!ELEMENT PROPERTY (#PCDATA)>
]>


<BIF VERSION="0.3">
<NETWORK>
<NAME>labor-neg-data-weka.filters.supervised.attribute.Discretize-Rfirst-last-precision6-weka.filters.unsupervised.attribute.ReplaceMissingValues</NAME>
<VARIABLE TYPE="nature">
	<NAME>duration</NAME>
	<OUTCOME>&apos;\&apos;All\&apos;&apos;</OUTCOME>
	<PROPERTY>position = (0,96)</PROPERTY>
</VARIABLE>
<VARIABLE TYPE="nature">
	<NAME>wage-increase-first-year</NAME>
	<OUTCOME>&apos;\&apos;(-inf-2.65]\&apos;&apos;</OUTCOME>
	<OUTCOME>&apos;\&apos;(2.65-inf)\&apos;&apos;</OUTCOME>
	<PROPERTY>position = (178,96)</PROPERTY>
</VARIABLE>
<VARIABLE TYPE="nature">
	<NAME>wage-increase-second-year</NAME>
	<OUTCOME>&apos;\&apos;(-inf-3.25]\&apos;&apos;</OUTCOME>
	<OUTCOME>&apos;\&apos;(3.25-inf)\&apos;&apos;</OUTCOME>
	<PROPERTY>position = (356,96)</PROPERTY>
</VARIABLE>
<VARIABLE TYPE="nature">
	<NAME>wage-increase-third-year</NAME>
	<OUTCOME>&apos;\&apos;(-inf-3.25]\&apos;&apos;</OUTCOME>
	<OUTCOME>&apos;\&apos;(3.25-inf)\&apos;&apos;</OUTCOME>
	<PROPERTY>position = (534,96)</PROPERTY>
</VARIABLE>
<VARIABLE TYPE="nature">
	<NAME>cost-of-living-adjustment</NAME>
	<OUTCOME>none</OUTCOME>
	<OUTCOME>tcf</OUTCOME>
	<OUTCOME>tc</OUTCOME>
	<PROPERTY>position = (712,96)</PROPERTY>
</VARIABLE>
<VARIABLE TYPE="nature">
	<NAME>working-hours</NAME>
	<OUTCOME>&apos;\&apos;All\&apos;&apos;</OUTCOME>
	<PROPERTY>position = (890,96)</PROPERTY>
</VARIABLE>
<VARIABLE TYPE="nature">
	<NAME>pension</NAME>
	<OUTCOME>none</OUTCOME>
	<OUTCOME>ret_allw</OUTCOME>
	<OUTCOME>empl_contr</OUTCOME>
	<PROPERTY>position = (1068,96)</PROPERTY>
</VARIABLE>
<VARIABLE TYPE="nature">
	<NAME>standby-pay</NAME>
	<OUTCOME>&apos;\&apos;(-inf-6]\&apos;&apos;</OUTCOME>
	<OUTCOME>&apos;\&apos;(6-inf)\&apos;&apos;</OUTCOME>
	<PROPERTY>position = (1246,96)</PROPERTY>
</VARIABLE>
<VARIABLE TYPE="nature">
	<NAME>shift-differential</NAME>
	<OUTCOME>&apos;\&apos;(-inf-3.5]\&apos;&apos;</OUTCOME>
	<OUTCOME>&apos;\&apos;(3.5-inf)\&apos;&apos;</OUTCOME>
	<PROPERTY>position = (1424,96)</PROPERTY>
</VARIABLE>
<VARIABLE TYPE="nature">
	<NAME>education-allowance</NAME>
	<OUTCOME>yes</OUTCOME>
	<OUTCOME>no</OUTCOME>
	<PROPERTY>position = (1602,96)</PROPERTY>
</VARIABLE>
<VARIABLE TYPE="nature">
	<NAME>statutory-holidays</NAME>
	<OUTCOME>&apos;\&apos;(-inf-10.5]\&apos;&apos;</OUTCOME>
	<OUTCOME>&apos;\&apos;(10.5-inf)\&apos;&apos;</OUTCOME>
	<PROPERTY>position = (1780,96)</PROPERTY>
</VARIABLE>
<VARIABLE TYPE="nature">
	<NAME>vacation</NAME>
	<OUTCOME>below_average</OUTCOME>
	<OUTCOME>average</OUTCOME>
	<OUTCOME>generous</OUTCOME>
	<PROPERTY>position = (1958,96)</PROPERTY>
</VARIABLE>
<VARIABLE TYPE="nature">
	<NAME>longterm-disability-assistance</NAME>
	<OUTCOME>yes</OUTCOME>
	<OUTCOME>no</OUTCOME>
	<PROPERTY>position = (2136,96)</PROPERTY>
</VARIABLE>
<VARIABLE TYPE="nature">
	<NAME>contribution-to-dental-plan</NAME>
	<OUTCOME>none</OUTCOME>
	<OUTCOME>half</OUTCOME>
	<OUTCOME>full</OUTCOME>
	<PROPERTY>position = (2314,96)</PROPERTY>
</VARIABLE>
<VARIABLE TYPE="nature">
	<NAME>bereavement-assistance</NAME>
	<OUTCOME>yes</OUTCOME>
	<OUTCOME>no</OUTCOME>
	<PROPERTY>position = (2492,96)</PROPERTY>
</VARIABLE>
<VARIABLE TYPE="nature">
	<NAME>contribution-to-health-plan</NAME>
	<OUTCOME>none</OUTCOME>
	<OUTCOME>half</OUTCOME>
	<OUTCOME>full</OUTCOME>
	<PROPERTY>position = (2670,96)</PROPERTY>
</VARIABLE>
<VARIABLE TYPE="nature">
	<NAME>class</NAME>
	<OUTCOME>bad</OUTCOME>
	<OUTCOME>good</OUTCOME>
	<PROPERTY>position = (1246,0)</PROPERTY>
</VARIABLE>
<DEFINITION>
<FOR>duration</FOR>
	<GIVEN>class</GIVEN>
<TABLE>
1.0 
1.0 
</TABLE>
</DEFINITION>
<DEFINITION>
<FOR>wage-increase-first-year</FOR>
	<GIVEN>class</GIVEN>
<TABLE>
0.6428571428571429 0.35714285714285715 
0.06578947368421052 0.9342105263157895 
</TABLE>
</DEFINITION>
<DEFINITION>
<FOR>wage-increase-second-year</FOR>
	<GIVEN>class</GIVEN>
<TABLE>
0.5476190476190477 0.4523809523809524 
0.09210526315789473 0.9078947368421053 
</TABLE>
</DEFINITION>
<DEFINITION>
<FOR>wage-increase-third-year</FOR>
	<GIVEN>class</GIVEN>
<TABLE>
0.21428571428571427 0.7857142857142857 
0.039473684210526314 0.9605263157894737 
</TABLE>
</DEFINITION>
<DEFINITION>
<FOR>cost-of-living-adjustment</FOR>
	<GIVEN>class</GIVEN>
<TABLE>
0.6744186046511628 0.06976744186046512 0.2558139534883721 
0.7402597402597403 0.19480519480519481 0.06493506493506493 
</TABLE>
</DEFINITION>
<DEFINITION>
<FOR>working-hours</FOR>
	<GIVEN>class</GIVEN>
<TABLE>
1.0 
1.0 
</TABLE>
</DEFINITION>
<DEFINITION>
<FOR>pension</FOR>
	<GIVEN>class</GIVEN>
<TABLE>
0.5348837209302325 0.11627906976744186 0.3488372093023256 
0.012987012987012988 0.06493506493506493 0.922077922077922 
</TABLE>
</DEFINITION>
<DEFINITION>
<FOR>standby-pay</FOR>
	<GIVEN>class</GIVEN>
<TABLE>
0.21428571428571427 0.7857142857142857 
0.013157894736842105 0.9868421052631579 
</TABLE>
</DEFINITION>
<DEFINITION>
<FOR>shift-differential</FOR>
	<GIVEN>class</GIVEN>
<TABLE>
0.40476190476190477 0.5952380952380952 
0.14473684210526316 0.8552631578947368 
</TABLE>
</DEFINITION>
<DEFINITION>
<FOR>education-allowance</FOR>
	<GIVEN>class</GIVEN>
<TABLE>
0.16666666666666666 0.8333333333333334 
0.19736842105263158 0.8026315789473685 
</TABLE>
</DEFINITION>
<DEFINITION>
<FOR>statutory-holidays</FOR>
	<GIVEN>class</GIVEN>
<TABLE>
0.5952380952380952 0.40476190476190477 
0.11842105263157894 0.881578947368421 
</TABLE>
</DEFINITION>
<DEFINITION>
<FOR>vacation</FOR>
	<GIVEN>class</GIVEN>
<TABLE>
0.5348837209302325 0.3488372093023256 0.11627906976744186 
0.35064935064935066 0.2727272727272727 0.37662337662337664 
</TABLE>
</DEFINITION>
<DEFINITION>
<FOR>longterm-disability-assistance</FOR>
	<GIVEN>class</GIVEN>
<TABLE>
0.5952380952380952 0.40476190476190477 
0.9868421052631579 0.013157894736842105 
</TABLE>
</DEFINITION>
<DEFINITION>
<FOR>contribution-to-dental-plan</FOR>
	<GIVEN>class</GIVEN>
<TABLE>
0.3488372093023256 0.627906976744186 0.023255813953488372 
0.06493506493506493 0.5844155844155844 0.35064935064935066 
</TABLE>
</DEFINITION>
<DEFINITION>
<FOR>bereavement-assistance</FOR>
	<GIVEN>class</GIVEN>
<TABLE>
0.8333333333333334 0.16666666666666666 
0.9868421052631579 0.013157894736842105 
</TABLE>
</DEFINITION>
<DEFINITION>
<FOR>contribution-to-health-plan</FOR>
	<GIVEN>class</GIVEN>
<TABLE>
0.3953488372093023 0.11627906976744186 0.4883720930232558 
0.012987012987012988 0.19480519480519481 0.7922077922077922 
</TABLE>
</DEFINITION>
<DEFINITION>
<FOR>class</FOR>
<TABLE>
0.35344827586206895 0.646551724137931 
</TABLE>
</DEFINITION>
</NETWORK>
</BIF>
